net
{
	jenginegenerator6060830225489488864L = "edu.ucla.belief.inference.JoinTreeSettings@1b35ef74";
	node_size = (130 55);
}

node LowerBodyO2
{
	states = ("<5" "5-12" "12+" );
	position = (1302 -421);
	ismapvariable = "false";
	diagnosistype = "AUXILIARY";
	excludepolicy = "include whole CPT";
}
node BirthAsphyxia
{
	states = ("yes" "no" );
	position = (723 66);
	ismapvariable = "false";
	diagnosistype = "AUXILIARY";
	excludepolicy = "include whole CPT";
}
node LungFlow
{
	states = ("Normal" "Low" "High" );
	position = (352 -88);
	ismapvariable = "false";
	diagnosistype = "AUXILIARY";
	excludepolicy = "include whole CPT";
}
node CardiacMixing
{
	states = ("None" "Mild" "Complete" "Transp." );
	position = (1086 -251);
	ismapvariable = "false";
	diagnosistype = "AUXILIARY";
	excludepolicy = "include whole CPT";
}
node DuctFlow
{
	states = ("Lt_to_Rt" "None" "Rt_to_Lt" );
	position = (1052 78);
	ismapvariable = "false";
	diagnosistype = "AUXILIARY";
	excludepolicy = "include whole CPT";
}
node CO2Report
{
	states = ("<7.5" ">=7.5" );
	position = (77 -475);
	ismapvariable = "false";
	diagnosistype = "AUXILIARY";
	excludepolicy = "include whole CPT";
}
node Sick
{
	states = ("yes" "no" );
	position = (669 -259);
	ismapvariable = "false";
	diagnosistype = "AUXILIARY";
	excludepolicy = "include whole CPT";
}
node HypoxiaInO2
{
	states = ("Mild" "Moderate" "Severe" );
	position = (626 -554);
	ismapvariable = "false";
	diagnosistype = "AUXILIARY";
	excludepolicy = "include whole CPT";
}
node XrayReport
{
	states = ("Normal" "Oligaemic" "Plethoric" "Grd_Glass" "Asy/Patchy" );
	position = (89 69);
	ismapvariable = "false";
	diagnosistype = "AUXILIARY";
	excludepolicy = "include whole CPT";
}
node LVH
{
	states = ("yes" "no" );
	position = (412 -14);
	ismapvariable = "false";
	diagnosistype = "AUXILIARY";
	excludepolicy = "include whole CPT";
}
node LungParench
{
	states = ("Normal" "Congested" "Abnormal" );
	position = (82 -224);
	ismapvariable = "false";
	diagnosistype = "AUXILIARY";
	excludepolicy = "include whole CPT";
}
node GruntingReport
{
	states = ("yes" "no" );
	position = (483 -354);
	ismapvariable = "false";
	diagnosistype = "AUXILIARY";
	excludepolicy = "include whole CPT";
}
node Age
{
	states = ("0-3_days" "4-10_days" "11-30_days" );
	position = (876 -261);
	ismapvariable = "false";
	diagnosistype = "AUXILIARY";
	excludepolicy = "include whole CPT";
}
node Grunting
{
	states = ("yes" "no" );
	position = (479 -248);
	ismapvariable = "false";
	diagnosistype = "AUXILIARY";
	excludepolicy = "include whole CPT";
}
node HypDistrib
{
	states = ("Equal" "Unequal" );
	position = (1307 73);
	ismapvariable = "false";
	diagnosistype = "AUXILIARY";
	excludepolicy = "include whole CPT";
}
node Disease
{
	states = ("PFC" "TGA" "Fallot" "PAIVS" "TAPVD" "Lung" );
	position = (720 -91);
	ismapvariable = "false";
	diagnosistype = "AUXILIARY";
	excludepolicy = "include whole CPT";
}
node CO2
{
	states = ("Normal" "Low" "High" );
	position = (80 -356);
	ismapvariable = "false";
	diagnosistype = "AUXILIARY";
	excludepolicy = "include whole CPT";
}
node LVHreport
{
	states = ("yes" "no" );
	position = (409 73);
	ismapvariable = "false";
	diagnosistype = "AUXILIARY";
	excludepolicy = "include whole CPT";
}
node RUQO2
{
	states = ("<5" "5-12" "12+" );
	position = (1109 -554);
	ismapvariable = "false";
	diagnosistype = "AUXILIARY";
	excludepolicy = "include whole CPT";
}
node ChestXray
{
	states = ("Normal" "Oligaemic" "Plethoric" "Grd_Glass" "Asy/Patch" );
	position = (86 -72);
	ismapvariable = "false";
	diagnosistype = "AUXILIARY";
	excludepolicy = "include whole CPT";
}
potential ( LowerBodyO2 | HypDistrib HypoxiaInO2 )
{
	data = (((	0.1	0.3	0.6	)
		(	0.30000000000000004	0.6000000000000001	0.10000000000000002	)
		(	0.5	0.4	0.1	))
		((	0.4	0.5	0.1	)
		(	0.5	0.45	0.05	)
		(	0.6	0.35	0.05	)));
}
potential ( BirthAsphyxia | )
{
	data = (	0.1	0.9	);
}
potential ( LungFlow | Disease )
{
	data = ((	0.3	0.65	0.05	)
		(	0.2	0.05	0.75	)
		(	0.15	0.8	0.05	)
		(	0.1	0.85	0.05	)
		(	0.3	0.1	0.6	)
		(	0.7	0.1	0.2	));
}
potential ( CardiacMixing | Disease )
{
	data = ((	0.4	0.43	0.15	0.02	)
		(	0.02	0.09	0.09	0.8	)
		(	0.02	0.16	0.8	0.02	)
		(	0.01	0.02	0.95	0.02	)
		(	0.01	0.03	0.95	0.01	)
		(	0.4	0.53	0.05	0.02	));
}
potential ( DuctFlow | Disease )
{
	data = ((	0.15	0.05	0.8	)
		(	0.1	0.8	0.1	)
		(	0.8	0.2	0.0	)
		(	1.0	0.0	0.0	)
		(	0.33	0.33	0.34	)
		(	0.2	0.4	0.4	));
}
potential ( CO2Report | CO2 )
{
	data = ((	0.9	0.1	)
		(	0.9	0.1	)
		(	0.1	0.9	));
}
potential ( Sick | Disease )
{
	data = ((	0.4	0.6	)
		(	0.3	0.7	)
		(	0.2	0.8	)
		(	0.3	0.7	)
		(	0.7	0.3	)
		(	0.7	0.3	));
}
potential ( HypoxiaInO2 | CardiacMixing LungParench )
{
	data = (((	0.93	0.05	0.02	)
		(	0.15	0.8	0.05	)
		(	0.7000000000000001	0.20000000000000004	0.10000000000000002	))
		((	0.1	0.8	0.1	)
		(	0.1	0.75	0.15	)
		(	0.1	0.65	0.25	))
		((	0.1	0.7	0.2	)
		(	0.05	0.65	0.3	)
		(	0.1	0.5	0.4	))
		((	0.02	0.18	0.8	)
		(	0.1	0.3	0.6	)
		(	0.02	0.18	0.8	)));
}
potential ( XrayReport | ChestXray )
{
	data = ((	0.7999999999999998	0.059999999999999984	0.059999999999999984	0.019999999999999997	0.059999999999999984	)
		(	0.1	0.8	0.02	0.02	0.06	)
		(	0.1	0.02	0.8	0.02	0.06	)
		(	0.08	0.02	0.1	0.6	0.2	)
		(	0.08	0.02	0.1	0.1	0.7	));
}
potential ( LVH | Disease )
{
	data = ((	0.1	0.9	)
		(	0.1	0.9	)
		(	0.1	0.9	)
		(	0.9	0.1	)
		(	0.05	0.95	)
		(	0.1	0.9	));
}
potential ( LungParench | Disease )
{
	data = ((	0.6	0.1	0.3	)
		(	0.8	0.05	0.15	)
		(	0.8	0.05	0.15	)
		(	0.8	0.05	0.15	)
		(	0.1	0.6	0.3	)
		(	0.03	0.25	0.72	));
}
potential ( GruntingReport | Grunting )
{
	data = ((	0.8	0.2	)
		(	0.1	0.9	));
}
potential ( Age | Disease Sick )
{
	data = (((	0.95	0.03	0.02	)
		(	0.85	0.1	0.05	))
		((	0.8	0.15	0.05	)
		(	0.7000000000000001	0.20000000000000004	0.10000000000000002	))
		((	0.7	0.15	0.15	)
		(	0.25	0.25	0.5	))
		((	0.8	0.15	0.05	)
		(	0.8	0.15	0.05	))
		((	0.8	0.15	0.05	)
		(	0.7000000000000001	0.20000000000000004	0.10000000000000002	))
		((	0.9	0.08	0.02	)
		(	0.8	0.15	0.05	)));
}
potential ( Grunting | LungParench Sick )
{
	data = (((	0.2	0.8	)
		(	0.05	0.95	))
		((	0.4	0.6	)
		(	0.2	0.8	))
		((	0.8	0.2	)
		(	0.6	0.4	)));
}
potential ( HypDistrib | DuctFlow CardiacMixing )
{
	data = (((	0.95	0.05	)
		(	0.95	0.05	)
		(	0.95	0.05	)
		(	0.95	0.05	))
		((	0.95	0.05	)
		(	0.95	0.05	)
		(	0.95	0.05	)
		(	0.95	0.05	))
		((	0.05	0.95	)
		(	0.5	0.5	)
		(	0.95	0.05	)
		(	0.5	0.5	)));
}
potential ( Disease | BirthAsphyxia )
{
	data = ((	0.2	0.3	0.25	0.15	0.05	0.05	)
		(	0.03061224	0.33673469	0.29591837	0.23469388	0.05102041	0.05102041	));
}
potential ( CO2 | LungParench )
{
	data = ((	0.8	0.1	0.1	)
		(	0.65	0.05	0.3	)
		(	0.45	0.05	0.5	));
}
potential ( LVHreport | LVH )
{
	data = ((	0.9	0.1	)
		(	0.05	0.95	));
}
potential ( RUQO2 | HypoxiaInO2 )
{
	data = ((	0.1	0.3	0.6	)
		(	0.30000000000000004	0.6000000000000001	0.10000000000000002	)
		(	0.5	0.4	0.1	));
}
potential ( ChestXray | LungParench LungFlow )
{
	data = (((	0.9	0.03	0.03	0.01	0.03	)
		(	0.14	0.8	0.02	0.02	0.02	)
		(	0.15	0.01	0.79	0.04	0.01	))
		((	0.05000000000000001	0.020000000000000004	0.15000000000000002	0.7000000000000001	0.08000000000000002	)
		(	0.05	0.22	0.08	0.5	0.15	)
		(	0.05	0.02	0.4	0.4	0.13	))
		((	0.05	0.05	0.05	0.05	0.8	)
		(	0.05	0.15	0.05	0.05	0.7	)
		(	0.23999999999999994	0.32999999999999996	0.029999999999999992	0.33999999999999997	0.059999999999999984	)));
}
